<?xml version="1.0"?>
<opencv_storage>
<cascade>
  <stageType>BOOST</stageType>
  <featureType>HAAR</featureType>
  <height>26</height>
  <width>51</width>
  <stageParams>
    <boostType>GAB</boostType>
    <minHitRate>9.9760001897811890e-01</minHitRate>
    <maxFalseAlarm>3.4999999403953552e-01</maxFalseAlarm>
    <weightTrimRate>9.4999998807907104e-01</weightTrimRate>
    <maxDepth>1</maxDepth>
    <maxWeakCount>100</maxWeakCount></stageParams>
  <featureParams>
    <maxCatCount>0</maxCatCount>
    <featSize>1</featSize>
    <mode>BASIC</mode></featureParams>
  <stageNum>5</stageNum>
  <stages>
    <!-- stage 0 -->
    <_>
      <maxWeakCount>3</maxWeakCount>
      <stageThreshold>-1.0350756645202637e+00</stageThreshold>
      <weakClassifiers>
        <_>
          <internalNodes>
            0 -1 7 3.9257176220417023e-02</internalNodes>
          <leafValues>
            -9.8605579137802124e-01 9.8644065856933594e-01</leafValues></_>
        <_>
          <internalNodes>
            0 -1 11 7.6024029403924942e-03</internalNodes>
          <leafValues>
            -9.5061331987380981e-01 9.8748558759689331e-01</leafValues></_>
        <_>
          <internalNodes>
            0 -1 3 1.0660921689122915e-03</internalNodes>
          <leafValues>
            -9.7346603870391846e-01 9.0159338712692261e-01</leafValues></_></weakClassifiers></_>
    <!-- stage 1 -->
    <_>
      <maxWeakCount>3</maxWeakCount>
      <stageThreshold>-1.0888679027557373e+00</stageThreshold>
      <weakClassifiers>
        <_>
          <internalNodes>
            0 -1 8 -2.1772537380456924e-02</internalNodes>
          <leafValues>
            1. -9.7041422128677368e-01</leafValues></_>
        <_>
          <internalNodes>
            0 -1 12 7.5012696906924248e-03</internalNodes>
          <leafValues>
            -9.4121170043945313e-01 9.1811323165893555e-01</leafValues></_>
        <_>
          <internalNodes>
            0 -1 5 2.1332919597625732e-02</internalNodes>
          <leafValues>
            -1. 8.2275807857513428e-01</leafValues></_></weakClassifiers></_>
    <!-- stage 2 -->
    <_>
      <maxWeakCount>3</maxWeakCount>
      <stageThreshold>-1.1278192996978760e+00</stageThreshold>
      <weakClassifiers>
        <_>
          <internalNodes>
            0 -1 6 1.0884884744882584e-02</internalNodes>
          <leafValues>
            -9.7227722406387329e-01 9.7923874855041504e-01</leafValues></_>
        <_>
          <internalNodes>
            0 -1 14 5.0830207765102386e-03</internalNodes>
          <leafValues>
            -9.5308691263198853e-01 8.9416098594665527e-01</leafValues></_>
        <_>
          <internalNodes>
            0 -1 2 -4.0203243494033813e-02</internalNodes>
          <leafValues>
            7.9754489660263062e-01 -9.6869158744812012e-01</leafValues></_></weakClassifiers></_>
    <!-- stage 3 -->
    <_>
      <maxWeakCount>3</maxWeakCount>
      <stageThreshold>-1.1403802633285522e+00</stageThreshold>
      <weakClassifiers>
        <_>
          <internalNodes>
            0 -1 13 -8.6455279961228371e-03</internalNodes>
          <leafValues>
            9.8611110448837280e-01 -9.7230464220046997e-01</leafValues></_>
        <_>
          <internalNodes>
            0 -1 10 4.4056405313313007e-03</internalNodes>
          <leafValues>
            -9.2904907464981079e-01 8.2011073827743530e-01</leafValues></_>
        <_>
          <internalNodes>
            0 -1 1 1.8624395597726107e-03</internalNodes>
          <leafValues>
            -9.9195986986160278e-01 7.6097345352172852e-01</leafValues></_></weakClassifiers></_>
    <!-- stage 4 -->
    <_>
      <maxWeakCount>3</maxWeakCount>
      <stageThreshold>-1.2419548034667969e+00</stageThreshold>
      <weakClassifiers>
        <_>
          <internalNodes>
            0 -1 9 1.1452484875917435e-02</internalNodes>
          <leafValues>
            -9.6841067075729370e-01 9.8601400852203369e-01</leafValues></_>
        <_>
          <internalNodes>
            0 -1 0 9.1246575117111206e-02</internalNodes>
          <leafValues>
            -9.1752398014068604e-01 8.8091605901718140e-01</leafValues></_>
        <_>
          <internalNodes>
            0 -1 4 2.2895033471286297e-03</internalNodes>
          <leafValues>
            -9.9382275342941284e-01 6.4397990703582764e-01</leafValues></_></weakClassifiers></_></stages>
  <features>
    <_>
      <rects>
        <_>
          0 12 36 5 -1.</_>
        <_>
          18 12 18 5 2.</_></rects>
      <tilted>0</tilted></_>
    <_>
      <rects>
        <_>
          1 15 3 3 -1.</_>
        <_>
          2 15 1 3 3.</_></rects>
      <tilted>0</tilted></_>
    <_>
      <rects>
        <_>
          5 20 38 6 -1.</_>
        <_>
          5 20 19 3 2.</_>
        <_>
          24 23 19 3 2.</_></rects>
      <tilted>0</tilted></_>
    <_>
      <rects>
        <_>
          17 1 4 2 -1.</_>
        <_>
          17 1 2 1 2.</_>
        <_>
          19 2 2 1 2.</_></rects>
      <tilted>0</tilted></_>
    <_>
      <rects>
        <_>
          19 4 1 8 -1.</_>
        <_>
          19 8 1 4 2.</_></rects>
      <tilted>0</tilted></_>
    <_>
      <rects>
        <_>
          23 12 10 6 -1.</_>
        <_>
          28 12 5 6 2.</_></rects>
      <tilted>0</tilted></_>
    <_>
      <rects>
        <_>
          28 11 8 2 -1.</_>
        <_>
          28 12 8 1 2.</_></rects>
      <tilted>0</tilted></_>
    <_>
      <rects>
        <_>
          30 18 20 6 -1.</_>
        <_>
          30 20 20 2 3.</_></rects>
      <tilted>0</tilted></_>
    <_>
      <rects>
        <_>
          35 12 6 5 -1.</_>
        <_>
          37 12 2 5 3.</_></rects>
      <tilted>0</tilted></_>
    <_>
      <rects>
        <_>
          38 13 2 9 -1.</_>
        <_>
          39 13 1 9 2.</_></rects>
      <tilted>0</tilted></_>
    <_>
      <rects>
        <_>
          38 17 2 6 -1.</_>
        <_>
          39 17 1 6 2.</_></rects>
      <tilted>0</tilted></_>
    <_>
      <rects>
        <_>
          41 12 7 3 -1.</_>
        <_>
          41 13 7 1 3.</_></rects>
      <tilted>0</tilted></_>
    <_>
      <rects>
        <_>
          41 15 8 3 -1.</_>
        <_>
          41 16 8 1 3.</_></rects>
      <tilted>0</tilted></_>
    <_>
      <rects>
        <_>
          41 18 4 4 -1.</_>
        <_>
          41 18 2 2 2.</_>
        <_>
          43 20 2 2 2.</_></rects>
      <tilted>0</tilted></_>
    <_>
      <rects>
        <_>
          44 18 4 4 -1.</_>
        <_>
          44 18 2 2 2.</_>
        <_>
          46 20 2 2 2.</_></rects>
      <tilted>0</tilted></_></features></cascade>
</opencv_storage>
